{
  "type": "md2d",
  "imagePath": "",
  "width": 3.6,
  "height": 3.3,
  "unitsScheme": "md2d",
  "lennardJonesForces": true,
  "coulombForces": true,
  "temperatureControl": false,
  "gravitationalField": false,
  "timeStep": 1,
  "dielectricConstant": 1,
  "realisticDielectricEffect": true,
  "solventForceFactor": 1.25,
  "solventForceType": 0,
  "additionalSolventForceMult": 4,
  "additionalSolventForceThreshold": 10,
  "polarAAEpsilon": -2,
  "viscosity": 1,
  "timeStepsPerTick": 50,
  "DNAState": "dna",
  "DNA": "",
  "DNAMutations": true,
  "viewOptions": {
    "viewPortWidth": 3.6,
    "viewPortHeight": 3.3,
    "viewPortZoom": 1,
    "viewPortX": 0,
    "viewPortY": 0,
    "viewPortDrag": false,
    "backgroundColor": "#eeeeee",
    "showClock": false,
    "markColor": "#f8b500",
    "keShading": false,
    "chargeShading": false,
    "useThreeLetterCode": true,
    "aminoAcidColorScheme": "hydrophobicity",
    "showChargeSymbols": true,
    "showVDWLines": false,
    "VDWLinesCutoff": "medium",
    "showVelocityVectors": false,
    "showForceVectors": false,
    "electricFieldDensity": 0,
    "showAtomTrace": false,
    "images": [
      {
        "imageUri": "greenleaf.gif",
        "imageHostIndex": 0,
        "imageHostType": "",
        "imageLayer": 2,
        "imageX": 1.34,
        "imageY": 3.24
      },
      {
        "imageUri": "redleaf.gif",
        "imageHostIndex": 0,
        "imageHostType": "",
        "imageLayer": 2,
        "imageLayerPosition": 1,
        "imageX": 0.98,
        "imageY": 1.63
      }
    ],
    "imageMapping": {},
    "textBoxes": [
      {
        "text": "Sunlight Filter",
        "x": 2.52,
        "y": 0.23,
        "layer": 1,
        "anchor": "upper-left"
      }
    ],
    "xlabel": false,
    "ylabel": false,
    "xunits": false,
    "yunits": false,
    "controlButtons": "play",
    "gridLines": false,
    "atomNumbers": false,
    "enableAtomTooltips": false,
    "enableKeyboardHandlers": true,
    "atomTraceColor": "#6913c5",
    "velocityVectors": {
      "color": "#000",
      "width": 0.01,
      "length": 2
    },
    "forceVectors": {
      "color": "#169C30",
      "width": 0.01,
      "length": 2
    }
  },
  "pairwiseLJProperties": [],
  "elements": {
    "mass": [
      20,
      40,
      50,
      50,
      600
    ],
    "sigma": [
      0.07,
      0.14,
      0.2,
      0.2,
      0.3
    ],
    "epsilon": [
      -0.1,
      -0.1,
      -0.1,
      -0.1,
      -5
    ],
    "color": [
      -855310,
      -9066941,
      -65536,
      -16711936,
      -855310
    ]
  },
  "atoms": {
    "x": [
      1.3823651973568787,
      1.3352140020042285,
      1.693209553702478,
      1.9111399434236023,
      1.3299915418415142,
      1.2790047940878104,
      1.507307527887128,
      2.136755166344082,
      2.315172596447578,
      2.405637513051646,
      2.3927561207377352,
      2.2758567629508613,
      2.1127915155963564,
      1.6811752030462153,
      1.4864895851331443,
      1.5920771703111658,
      1.8081335652457973,
      2.2725411374177087,
      2.354190298203114,
      2.333529553600084,
      2.1453020153681326,
      1.698573475828937,
      1.4904254818167957,
      1.0715358048131518,
      1.2425814364876775,
      1.6773463317034356,
      1.4206917640345929,
      1.8481243775203753,
      2.0122962319195525,
      2.246498007481905,
      1.6291777591023004,
      2.011731647913758,
      2.1567281609487883,
      1.3254805828446892,
      1.8857871107898185,
      1.293900281241519
    ],
    "y": [
      2.8256683131903246,
      2.6107165998469886,
      3.1088608582355914,
      3.111616263365735,
      2.391150740703385,
      1.9555403516456775,
      3.0106603827325147,
      3.0434305659258825,
      2.9064317449874233,
      2.7182282815443255,
      2.492212243398562,
      2.2909409754835095,
      2.1496651942674188,
      2.128771174051966,
      2.026451827971495,
      1.4461308154850945,
      1.5147074362092017,
      1.081995526160152,
      0.8796624490911398,
      0.6549007024679622,
      0.24501920862447718,
      0.4098939903167229,
      0.4671451742357152,
      0.6097067294750014,
      0.7931052155846811,
      1.2278811907242146,
      0.9246072494289191,
      0.5824114599497363,
      0.4268868096308455,
      0.44388839776711,
      1.0121207048879646,
      1.4196466833965007,
      1.2673035353240563,
      2.1683151297448386,
      2.166969801035779,
      0.5748758616056489
    ],
    "vx": [
      0.00008971241519665983,
      5.675449827098125e-7,
      -0.00023265197692645884,
      0.0002035310394443479,
      -0.000013925768749600213,
      -0.00016354685299528254,
      -0.00004420530482522985,
      0.00019966614008316163,
      -0.0001568255786613126,
      -0.00005618311004095421,
      -0.000009157557747898533,
      -0.00011038106975839508,
      -0.00022280585369098235,
      -0.000009477134811920375,
      -0.00005594005875246167,
      0.000091041326299741,
      0.0001644204570813635,
      -0.0000786935897759522,
      0.00013775872554420168,
      0.000046028574610469355,
      0.00002071913216655578,
      -0.000028887515838377516,
      -0.000005821723582623051,
      0.000051346482235116706,
      -0.00005580878866134776,
      -0.000042193098589097756,
      0.000056251390994939036,
      -0.00026582218769340545,
      -0.00015861095898162214,
      -0.0000777165148899873,
      0.00010566214943229354,
      0.00004744224878900908,
      -0.00007486772975016588,
      0.00012408767401444196,
      0.00045341370951982186,
      0.00009127376104606743
    ],
    "vy": [
      0.00006914453448519276,
      0.00009749208962818524,
      -0.00005689500012002458,
      0.000008546753855421112,
      -0.00006331817152929042,
      -0.000059170463923497746,
      -0.00004040833287298279,
      -0.0001330529312717304,
      0.0000569934979834092,
      0.000051646217878751844,
      0.000019891542390591855,
      -0.000060068854264246766,
      0.00004558648338631741,
      0.00006906720675892363,
      0.000055493454101586966,
      0.0001667301526280569,
      -0.00020453075038014915,
      -0.00006705918626010701,
      0.0001246934509892274,
      0.000017210629895909883,
      0.00007877433311428346,
      0.00018388960281815167,
      0.0002822438516772318,
      -0.00010525937870340325,
      0.0000473473823539622,
      -0.00016413984002837045,
      -0.000018238102073444183,
      0.00021205322333433686,
      0.00011623994082859436,
      0.00013491161012971656,
      -0.0001585833748695145,
      -0.00008817591271484659,
      -0.0001615797587301475,
      -0.00010226885247344655,
      0.00004546439553712192,
      -0.00019875264845292638
    ],
    "charge": [
      0,
      0,
      0,
      0,
      0,
      0,
      0,
      0,
      0,
      0,
      0,
      0,
      0,
      0,
      0,
      0,
      0,
      0,
      0,
      0,
      0,
      0,
      0,
      0,
      0,
      0,
      0,
      0,
      0,
      0,
      0,
      0,
      0,
      0,
      0,
      0
    ],
    "friction": [
      0,
      0,
      0,
      0,
      0,
      0,
      0,
      0,
      0,
      0,
      0,
      0,
      0,
      0,
      0,
      0,
      0,
      0,
      0,
      0,
      0,
      0,
      0,
      0,
      0,
      0,
      0,
      0,
      0,
      0,
      0,
      0,
      0,
      0,
      0,
      0
    ],
    "element": [
      3,
      3,
      3,
      3,
      3,
      3,
      3,
      3,
      3,
      3,
      3,
      3,
      3,
      3,
      3,
      2,
      2,
      2,
      2,
      2,
      2,
      2,
      2,
      2,
      2,
      2,
      2,
      2,
      2,
      2,
      2,
      2,
      2,
      3,
      3,
      2
    ],
    "pinned": [
      0,
      0,
      0,
      0,
      0,
      0,
      0,
      0,
      0,
      0,
      0,
      0,
      0,
      0,
      0,
      0,
      0,
      0,
      0,
      0,
      0,
      0,
      0,
      0,
      0,
      0,
      0,
      0,
      0,
      0,
      0,
      0,
      0,
      0,
      0,
      0
    ],
    "visible": [
      0,
      0,
      0,
      0,
      0,
      0,
      0,
      0,
      0,
      0,
      0,
      0,
      0,
      0,
      0,
      0,
      0,
      0,
      0,
      0,
      0,
      0,
      0,
      0,
      0,
      0,
      0,
      0,
      0,
      0,
      0,
      0,
      0,
      0,
      0,
      0
    ],
    "excitation": [
      0,
      0,
      0,
      0,
      0,
      0,
      0,
      0,
      0,
      0,
      0,
      0,
      0,
      0,
      0,
      0,
      0,
      0,
      0,
      0,
      0,
      0,
      0,
      0,
      0,
      0,
      0,
      0,
      0,
      0,
      0,
      0,
      0,
      0,
      0,
      0
    ]
  },
  "restraints": {
    "atomIndex": [
      0,
      1,
      2,
      3,
      4,
      5,
      6,
      7,
      8,
      9,
      10,
      11,
      12,
      13,
      14,
      15,
      16,
      17,
      18,
      19,
      20,
      21,
      22,
      23,
      24,
      25,
      26,
      27,
      28,
      29,
      30,
      31,
      32,
      33,
      34,
      35
    ],
    "k": [
      100,
      100,
      100,
      100,
      100,
      100,
      100,
      100,
      100,
      100,
      100,
      100,
      100,
      100,
      100,
      100,
      100,
      100,
      100,
      100,
      100,
      100,
      100,
      100,
      100,
      100,
      100,
      100,
      100,
      100,
      100,
      100,
      100,
      100,
      100,
      100
    ],
    "x0": [
      1.39,
      1.34,
      1.69,
      1.9168359790682825,
      1.33,
      1.29,
      1.51,
      2.13,
      2.3,
      2.41,
      2.39,
      2.27,
      2.1,
      1.69,
      1.49,
      1.5923528657150916,
      1.8043390314701617,
      2.2732500614958715,
      2.35530995629818,
      2.3264606844242413,
      2.1480718919327426,
      1.69,
      1.4799999999999998,
      1.0799999999999998,
      1.245810773293642,
      1.6812276360583962,
      1.4249954076340205,
      1.8561053803121172,
      2.0255726404293455,
      2.250257732623099,
      1.6220206304776954,
      2.014003328476213,
      2.142863598776474,
      1.33,
      1.88,
      1.29
    ],
    "y0": [
      2.82,
      2.62,
      3.1,
      3.1049254729237474,
      2.39,
      1.96,
      3,
      3.04,
      2.92,
      2.72,
      2.48,
      2.29,
      2.16,
      2.12,
      2.04,
      1.4418018893284057,
      1.5022455112337962,
      1.0722634511545306,
      0.8722549789965157,
      0.6575638849824634,
      0.24948378597015902,
      0.41,
      0.4699999999999994,
      0.6,
      0.8071570045250723,
      1.2377404883097427,
      0.9332498579267701,
      0.5736261621192955,
      0.43159017278353473,
      0.45108358212749294,
      1.0262219845694307,
      1.4240284122361202,
      1.2485157014742432,
      2.18,
      2.16,
      0.55
    ]
  },
  "rectangles": {
    "x": [
      3.49
    ],
    "y": [
      0.020000000000000018
    ],
    "height": [
      3.26
    ],
    "width": [
      0.11
    ],
    "fence": [
      false
    ],
    "color": [
      "transparent"
    ],
    "lineColor": [
      "black"
    ],
    "lineWeight": [
      1
    ],
    "lineDashes": [
      "none"
    ],
    "layer": [
      1
    ],
    "visible": [
      true
    ]
  },
  "quantumDynamics": {
    "elementEnergyLevels": [
      [],
      [],
      [
        -0.0004631294398207813,
        -0.00045348090982451507,
        -0.00044383237982824873,
        -0.0004341838498319825,
        -0.00042453531983571626,
        -0.0004148867898394499,
        -0.0004052382598431837,
        -0.00039558972984691734,
        -0.00036664413985811853,
        -0.0003569955905647923,
        -0.000347347079865586,
        -0.0003376985498693197,
        -0.00032805001987305343,
        -0.00031840148987678714,
        -0.0003087529405834609,
        -0.0002991044298842546,
        -0.00028945589988798833,
        -0.0002798073602431921,
        -0.00027015883989545575,
        -0.0002605103098991895,
        -0.00025086177990292323,
        -0.00024121324990665694,
        -0.00023156471026186069,
        -0.00022191618991412436,
        -0.00021226765991785813,
        -0.00020261912992159184,
        -0.00019297059992532555,
        -0.0001833220602805293,
        -0.000173673539932793,
        -0.00016402500993652672,
        -0.00015437647029173046,
        -0.00014472794994399417,
        -0.0001350794102991979,
        -0.00012543088995146162,
        -0.00011578235995519533,
        -0.00010613382031039906,
        null,
        null,
        -0.0000868367796149265,
        -0.00007718821102454023,
        -0.00006753969067680395,
        -0.000057891170329067675,
        -0.00004824264998133139,
        -0.00004824264998133139,
        -0.00003859412963359511,
        -0.00002894556104320884,
        -0.00001929704166032556,
        -0.00000964852083016278,
        0
      ],
      [
        -0.0004631294398207813,
        -0.00045348090982451507,
        -0.00044383237982824873,
        -0.0004341838498319825,
        -0.00042453531983571626,
        -0.0004148867898394499,
        -0.0004052382598431837,
        -0.00039558972984691734,
        -0.0003859411998506511,
        -0.0003762926698543848,
        -0.00036664413985811853,
        -0.0003569955905647923,
        -0.0003087529405834609,
        -0.0002991044298842546,
        -0.00028945589988798833,
        -0.0002798073602431921,
        -0.00027015883989545575,
        -0.0002605103098991895,
        -0.00025086177990292323,
        -0.00024121324990665694,
        -0.00023156471026186069,
        -0.00022191618991412436,
        -0.00021226765991785813,
        -0.00020261912992159184,
        -0.00019297059992532555,
        -0.0001833220602805293,
        -0.000173673539932793,
        -0.00016402500993652672,
        -0.00015437647029173046,
        -0.00014472794994399417,
        -0.0001350794102991979,
        -0.00012543088995146162,
        -0.00011578235995519533,
        -0.00010613382031039906,
        null,
        -0.0000868367796149265,
        -0.00007718821102454023,
        -0.00006753969067680395,
        -0.000057891170329067675,
        -0.00004824264998133139,
        -0.00003859412963359511,
        -0.00002894556104320884,
        -0.00001929704166032556,
        -0.00000964852083016278,
        0
      ],
      []
    ],
    "photons": {},
    "radiationlessEmissionProbability": 1
  }
}