{
  "type": "md2d",
  "imagePath": "",
  "width": 4,
  "height": 2.9,
  "unitsScheme": "md2d",
  "lennardJonesForces": true,
  "coulombForces": true,
  "temperatureControl": true,
  "targetTemperature": 3000,
  "gravitationalField": false,
  "timeStep": 1,
  "dielectricConstant": 1,
  "realisticDielectricEffect": true,
  "solventForceFactor": 1.25,
  "solventForceType": 0,
  "additionalSolventForceMult": 4,
  "additionalSolventForceThreshold": 10,
  "polarAAEpsilon": -2,
  "viscosity": 1,
  "timeStepsPerTick": 20,
  "DNAState": "dna",
  "DNA": "",
  "DNAMutations": true,
  "viewOptions": {
    "viewPortWidth": 4,
    "viewPortHeight": 2.9,
    "viewPortZoom": 1,
    "viewPortX": 0,
    "viewPortY": 0,
    "viewPortDrag": false,
    "backgroundColor": "#eeeeee",
    "showClock": false,
    "markColor": "#f8b500",
    "keShading": false,
    "chargeShading": false,
    "useThreeLetterCode": true,
    "aminoAcidColorScheme": "hydrophobicity",
    "showChargeSymbols": false,
    "showVDWLines": false,
    "VDWLinesCutoff": "medium",
    "showVelocityVectors": false,
    "showForceVectors": false,
    "showElectricField": false,
    "electricFieldDensity": 18,
    "electricFieldColor": "auto",
    "showAtomTrace": false,
    "images": [],
    "imageMapping": {},
    "textBoxes": [
      {
        "text": "Pb",
        "x": 0.4557461166381836,
        "y": 2.5027947998046876,
        "layer": 1,
        "hostType": "Atom",
        "hostIndex": 15,
        "anchor": "upper-left"
      },
      {
        "text": "Pb",
        "x": 1.1230673217773437,
        "y": 2.527539405822754,
        "layer": 1,
        "hostType": "Atom",
        "hostIndex": 19,
        "anchor": "upper-left"
      },
      {
        "text": "Pb",
        "x": 0.4346879196166992,
        "y": 1.8017562866210937,
        "layer": 1,
        "hostType": "Atom",
        "hostIndex": 16,
        "anchor": "upper-left"
      },
      {
        "text": "Pb",
        "x": 1.1237164306640626,
        "y": 1.8478148651123047,
        "layer": 1,
        "hostType": "Atom",
        "hostIndex": 21,
        "anchor": "upper-left"
      },
      {
        "text": "Pb",
        "x": 0.4335000991821289,
        "y": 1.124536590576172,
        "layer": 1,
        "hostType": "Atom",
        "hostIndex": 17,
        "anchor": "upper-left"
      },
      {
        "text": "Pb",
        "x": 1.1053759765625,
        "y": 1.1264369201660156,
        "layer": 1,
        "hostType": "Atom",
        "hostIndex": 20,
        "anchor": "upper-left"
      },
      {
        "text": "Pb",
        "x": 0.44755413055419924,
        "y": 0.42071685791015623,
        "layer": 1,
        "hostType": "Atom",
        "hostIndex": 18,
        "anchor": "upper-left"
      },
      {
        "text": "Pb",
        "x": 1.0912786102294922,
        "y": 0.41900970458984377,
        "layer": 1,
        "hostType": "Atom",
        "hostIndex": 22,
        "anchor": "upper-left"
      },
      {
        "text": "Pb",
        "x": 1.8331517028808593,
        "y": 2.5337270736694335,
        "layer": 1,
        "hostType": "Atom",
        "hostIndex": 23,
        "anchor": "upper-left"
      },
      {
        "text": "Pb",
        "x": 1.8182603454589843,
        "y": 1.8446886444091797,
        "layer": 1,
        "hostType": "Atom",
        "hostIndex": 24,
        "anchor": "upper-left"
      },
      {
        "text": "Pb",
        "x": 1.8253593444824219,
        "y": 1.1203648376464843,
        "layer": 1,
        "hostType": "Atom",
        "hostIndex": 25,
        "anchor": "upper-left"
      },
      {
        "text": "Pb",
        "x": 1.8348602294921874,
        "y": 0.4263346862792969,
        "layer": 1,
        "hostType": "Atom",
        "hostIndex": 26,
        "anchor": "upper-left"
      },
      {
        "text": "Pb",
        "x": 2.526039886474609,
        "y": 2.539637680053711,
        "layer": 1,
        "hostType": "Atom",
        "hostIndex": 27,
        "anchor": "upper-left"
      },
      {
        "text": "Pb",
        "x": 2.503617248535156,
        "y": 1.8238309478759767,
        "layer": 1,
        "hostType": "Atom",
        "hostIndex": 28,
        "anchor": "upper-left"
      },
      {
        "text": "Pb",
        "x": 2.518482971191406,
        "y": 1.1704608154296876,
        "layer": 1,
        "hostType": "Atom",
        "hostIndex": 29,
        "anchor": "upper-left"
      },
      {
        "text": "Pb",
        "x": 2.5347994995117187,
        "y": 0.43437774658203127,
        "layer": 1,
        "hostType": "Atom",
        "hostIndex": 30,
        "anchor": "upper-left"
      },
      {
        "text": "Pb",
        "x": 3.220075988769531,
        "y": 2.531156463623047,
        "layer": 1,
        "hostType": "Atom",
        "hostIndex": 31,
        "anchor": "upper-left"
      },
      {
        "text": "Pb",
        "x": 3.2325704956054686,
        "y": 1.8479446411132812,
        "layer": 1,
        "hostType": "Atom",
        "hostIndex": 32,
        "anchor": "upper-left"
      },
      {
        "text": "Pb",
        "x": 3.2459033203125,
        "y": 1.1378538513183594,
        "layer": 1,
        "hostType": "Atom",
        "hostIndex": 33,
        "anchor": "upper-left"
      },
      {
        "text": "Pb",
        "x": 3.218242492675781,
        "y": 0.4359602355957031,
        "layer": 1,
        "hostType": "Atom",
        "hostIndex": 34,
        "anchor": "upper-left"
      },
      {
        "text": "+++++++++++++++++++++++++++++++++++",
        "x": -1.6,
        "y": 1.42,
        "layer": 1,
        "frame": "rectangle",
        "backgroundColor": "rgb(255,153,153)",
        "anchor": "upper-left"
      },
      {
        "text": "|||||||||||||||||||||||||||||||||||||",
        "x": 2.06,
        "y": 1.31,
        "layer": 1,
        "frame": "rectangle",
        "backgroundColor": "rgb(128,192,255)",
        "anchor": "upper-left"
      }
    ],
    "xlabel": false,
    "ylabel": false,
    "xunits": false,
    "yunits": false,
    "controlButtons": "play",
    "gridLines": false,
    "atomNumbers": false,
    "enableAtomTooltips": false,
    "enableKeyboardHandlers": true,
    "atomTraceColor": "#6913c5",
    "velocityVectors": {
      "color": "#000",
      "width": 0.01,
      "length": 2
    },
    "forceVectors": {
      "color": "#169C30",
      "width": 0.01,
      "length": 2
    },
    "forceVectorsDirectionOnly": false
  },
  "pairwiseLJProperties": [
    {
      "element1": 0,
      "element2": 3,
      "sigma": 0.22360000610351563,
      "epsilon": 0
    }
  ],
  "elements": {
    "mass": [
      20,
      40,
      300,
      200,
      600
    ],
    "sigma": [
      0.1,
      0.1,
      0.5,
      0.5,
      0.3
    ],
    "epsilon": [
      0,
      -0.1,
      -0.1,
      0,
      -5
    ],
    "color": [
      -3355393,
      -9066941,
      -8355712,
      -8355712,
      -855310
    ]
  },
  "atoms": {
    "x": [
      2.7326531193007075,
      2.103729414729972,
      1.952411890667602,
      2.7311807226399036,
      2.9954568909927586,
      3.769508405381485,
      0.3488676084158672,
      2.7305196820309656,
      1.4720610429919085,
      1.4276986110642214,
      2.2029686151604175,
      0.3597416124605117,
      1.4840776982409472,
      2.478162519542096,
      1.14432199491665,
      0.6857461012070923,
      0.6646879085139068,
      0.6635001101920491,
      0.6775541296065302,
      1.3530673158890505,
      1.3353759401117327,
      1.353716448091526,
      1.3212786088562631,
      2.06315171376128,
      2.0482603223465716,
      2.0553593896377818,
      2.0648602528499067,
      2.7560399575079297,
      2.733617186545199,
      2.7484830316756392,
      2.7647994727439875,
      3.450075856484357,
      3.462570366742815,
      3.4759033977243967,
      3.448242376137839,
      1.669258347806064,
      3.326937872230351,
      1.9455764183376345,
      2.7358823644947434,
      3.331829338772711,
      2.1993602306402513,
      3.5320525552733835,
      1.682352860388349,
      0.6226341746878283,
      3.5289342766095952,
      1.1495628291412976,
      3.2808026654965134,
      1.4266692268236987,
      0.6089214800519593,
      0.8795617057725051,
      0.8780350526613349,
      3.2478860515566743,
      0.26729789002725324,
      0.8821916019646343,
      3.0007768953559224,
      0.25509223848229745,
      0.10056024319188964,
      2.468422929875644,
      2.1152584352904054,
      0.8822747747661421
    ],
    "y": [
      2.0574693984668593,
      0.12115920396392425,
      2.5467004593557583,
      0.11745632625588144,
      1.568375232608582,
      0.6077385830826714,
      1.5698278986105811,
      1.0958403728522337,
      0.12303902316335723,
      1.5687381148186754,
      0.6068586483405923,
      2.545945802185226,
      1.0961828163805871,
      2.5470326378946857,
      0.6056141371692757,
      2.36779480282969,
      1.666756297942942,
      0.9895365369565959,
      0.2857169260225481,
      2.392539418907114,
      0.9914369330094011,
      1.7128148845466358,
      0.2840097399323975,
      2.3987270919085457,
      1.709688650046692,
      0.9853649025987132,
      0.2913346651050341,
      2.404637667006357,
      1.688830974208247,
      1.0354608761768933,
      0.2993777608880856,
      2.3961564671141122,
      1.7129446337514376,
      1.0028538947718855,
      0.3009602101135118,
      2.0573002001701712,
      1.0955757222112381,
      1.570543915714501,
      0.608326736474136,
      0.11948890906689712,
      2.0598186341105884,
      2.545928232719874,
      0.6068384346926118,
      2.0578990971315396,
      1.55829709018996,
      2.059193210267885,
      2.0575354474891907,
      2.544977110742187,
      0.6087851259579725,
      1.571189269505167,
      1.0958426711614149,
      0.6079135106016179,
      1.095490807723319,
      2.5451175343420545,
      2.5462361846813115,
      0.12169523867357214,
      2.058282923487105,
      1.5676469782064644,
      1.0969535687619896,
      0.12247919356365003
    ],
    "vx": [
      -0.0015872948224194294,
      -0.0015785121611143938,
      -0.0016252654491650856,
      -0.0016192428059128667,
      -0.001447070892620308,
      -0.0015022610930402016,
      -0.0016168072491117929,
      -0.0016976074826165158,
      -0.0015809304954623438,
      -0.0016026186208324166,
      -0.001543344315758787,
      -0.001659767561581472,
      -0.0016613502816216843,
      -0.0016671534861905795,
      -0.0014195365758468634,
      0.00022302006926509612,
      -0.00012778039914311786,
      0.0004335753942326966,
      0.00001829190438779792,
      -0.000035750781755804854,
      0.00036454227761863455,
      0.00024252843569130648,
      -0.00012069612818758522,
      -0.00007332230733662087,
      0.00028140073363884527,
      -0.00010185474417667813,
      -0.00003755461455385084,
      -0.0005141708293984568,
      0.0008483751844664895,
      -0.00005156202114135383,
      0.00019878905029660854,
      0.00016679405975678256,
      0.00013397365377685588,
      -0.000015594209274360363,
      -0.0002919592768111585,
      -0.0015946128884556277,
      -0.001492829692781388,
      -0.0015728173018692256,
      -0.0014861300913732334,
      -0.0015877701472568437,
      -0.0016734833889352266,
      -0.0016939696222802456,
      -0.0014086500849442819,
      -0.0015566582644827103,
      -0.0015674625885458275,
      -0.0015961121144728444,
      -0.0016443684723958234,
      -0.0016717142917839175,
      -0.001493756621683297,
      -0.001554832852952652,
      -0.0015780969080925137,
      -0.0014204733365282176,
      -0.0015305301463334898,
      -0.0016095792498028898,
      -0.001645089723652882,
      -0.0014421212975187475,
      -0.0016104820073127352,
      -0.00150065731328123,
      -0.001538736800060035,
      -0.00164076973343304
    ],
    "vy": [
      -0.00004118187718369225,
      -0.00005478707196584165,
      -0.00009666056035965526,
      0.00004695801698689957,
      0.000005520371209911193,
      0.000047406686491926374,
      0.000014446977926729323,
      0.000012995075179357221,
      -0.0000030520820048047697,
      -0.00005087186680435692,
      0.00008215883219945055,
      0.000007750420404676102,
      0.000042848445846185966,
      -0.00002957599567418912,
      0.00003273893863408683,
      -0.00017526467204364657,
      0.000004118644678469685,
      -0.00034361884571992407,
      -0.0004152449810329878,
      -0.0003935291876835897,
      -0.00032197711978816483,
      0.00022953533753651003,
      -0.00019695062735206466,
      0.00025918999438886135,
      -0.0006635840943231655,
      0.0006049627800661722,
      0.0006012071114821249,
      -0.0004600436197265769,
      -0.00008054379981969827,
      0.00025276446340643366,
      0.0003194506753674825,
      -0.00019150586697172078,
      -0.0007894220350051558,
      -0.00014608130106444082,
      -0.0005298105758208816,
      -0.000047723506450872474,
      -0.000024800447451220308,
      0.000026049414422606503,
      -0.0000769355510357713,
      0.00010725811747047621,
      -0.000056842360752959876,
      0.00007262516059741646,
      -0.00006916189340696303,
      0.000136953811321326,
      0.00002404639204947579,
      0.000006085551372856656,
      0.00003577702993147067,
      -0.000006580891916561735,
      -0.000040668464514126434,
      0.00008675542587050709,
      0.000022413409517589903,
      0.00005156958136126554,
      -0.000020407270340220925,
      -0.0000012693213819290698,
      0.0000662308171280609,
      3.458964393413088e-7,
      -0.00015709483391802674,
      -0.00008289755570715122,
      -0.00008117956927372971,
      0.000013470596941225393
    ],
    "charge": [
      -1,
      -1,
      -1,
      -1,
      -1,
      -1,
      -1,
      -1,
      -1,
      -1,
      -1,
      -1,
      -1,
      -1,
      -1,
      0,
      0,
      0,
      0,
      0,
      0,
      0,
      0,
      0,
      0,
      0,
      0,
      0,
      0,
      0,
      0,
      0,
      0,
      0,
      0,
      -1,
      -1,
      -1,
      -1,
      -1,
      -1,
      -1,
      -1,
      -1,
      -1,
      -1,
      -1,
      -1,
      -1,
      -1,
      -1,
      -1,
      -1,
      -1,
      -1,
      -1,
      -1,
      -1,
      -1,
      -1
    ],
    "friction": [
      0,
      0,
      0,
      0,
      0,
      0,
      0,
      0,
      0,
      0,
      0,
      0,
      0,
      0,
      0,
      0,
      0,
      0,
      0,
      0,
      0,
      0,
      0,
      0,
      0,
      0,
      0,
      0,
      0,
      0,
      0,
      0,
      0,
      0,
      0,
      0,
      0,
      0,
      0,
      0,
      0,
      0,
      0,
      0,
      0,
      0,
      0,
      0,
      0,
      0,
      0,
      0,
      0,
      0,
      0,
      0,
      0,
      0,
      0,
      0
    ],
    "element": [
      0,
      0,
      0,
      0,
      0,
      0,
      0,
      0,
      0,
      0,
      0,
      0,
      0,
      0,
      0,
      3,
      3,
      3,
      3,
      3,
      3,
      3,
      3,
      3,
      3,
      3,
      3,
      3,
      3,
      3,
      3,
      3,
      3,
      3,
      3,
      0,
      0,
      0,
      0,
      0,
      0,
      0,
      0,
      0,
      0,
      0,
      0,
      0,
      0,
      0,
      0,
      0,
      0,
      0,
      0,
      0,
      0,
      0,
      0,
      0
    ],
    "pinned": [
      0,
      0,
      0,
      0,
      0,
      0,
      0,
      0,
      0,
      0,
      0,
      0,
      0,
      0,
      0,
      0,
      0,
      0,
      0,
      0,
      0,
      0,
      0,
      0,
      0,
      0,
      0,
      0,
      0,
      0,
      0,
      0,
      0,
      0,
      0,
      0,
      0,
      0,
      0,
      0,
      0,
      0,
      0,
      0,
      0,
      0,
      0,
      0,
      0,
      0,
      0,
      0,
      0,
      0,
      0,
      0,
      0,
      0,
      0,
      0
    ]
  },
  "restraints": {
    "atomIndex": [
      15,
      16,
      17,
      18,
      19,
      20,
      21,
      22,
      23,
      24,
      25,
      26,
      27,
      28,
      29,
      30,
      31,
      32,
      33,
      34
    ],
    "k": [
      10000,
      10000,
      10000,
      10000,
      10000,
      10000,
      10000,
      10000,
      10000,
      10000,
      10000,
      10000,
      10000,
      10000,
      10000,
      10000,
      10000,
      10000,
      10000,
      10000
    ],
    "x0": [
      0.6857461012070923,
      0.6646879085139068,
      0.6635001101920491,
      0.6775541296065302,
      1.3530673158890505,
      1.3353759401117327,
      1.353716448091526,
      1.3212786088562631,
      2.06315171376128,
      2.0482603223465716,
      2.0553593896377818,
      2.0648602528499067,
      2.7560399575079297,
      2.733617186545199,
      2.7484830316756392,
      2.7647994727439875,
      3.450075856484357,
      3.462570366742815,
      3.4759033977243967,
      3.448242376137839
    ],
    "y0": [
      2.36779480282969,
      1.666756297942942,
      0.9895365369565959,
      0.2857169260225481,
      2.392539418907114,
      0.9914369330094011,
      1.7128148845466358,
      0.2840097399323975,
      2.3987270919085457,
      1.709688650046692,
      0.9853649025987132,
      0.2913346651050341,
      2.404637667006357,
      1.688830974208247,
      1.0354608761768933,
      0.2993777608880856,
      2.3961564671141122,
      1.7129446337514376,
      1.0028538947718855,
      0.3009602101135118
    ]
  },
  "electricFields": {
    "intensity": [
      0.0004
    ],
    "orientation": [
      "E"
    ],
    "shapeIdx": [
      null
    ]
  },
  "lines": {
    "x1": [
      0.67,
      1.33,
      2.05,
      2.73,
      3.45,
      4,
      4,
      4,
      4
    ],
    "y1": [
      2.89,
      2.895,
      2.895,
      2.895,
      2.875,
      2.4,
      1.7,
      0.99,
      0.3
    ],
    "x2": [
      0.67,
      1.33,
      2.05,
      2.73,
      3.45,
      0,
      -0.01,
      0,
      0
    ],
    "y2": [
      -0.02,
      -0.015,
      -0.015,
      -0.015,
      -0.035,
      2.4,
      1.7,
      0.99,
      0.3
    ],
    "beginStyle": [
      "none",
      "none",
      "none",
      "none",
      "none",
      "none",
      "none",
      "none",
      "none"
    ],
    "endStyle": [
      "none",
      "none",
      "none",
      "none",
      "none",
      "none",
      "none",
      "none",
      "none"
    ],
    "fence": [
      0,
      0,
      0,
      0,
      0,
      0,
      0,
      0,
      0
    ],
    "lineColor": [
      "rgb(128,128,128)",
      "rgb(128,128,128)",
      "rgb(128,128,128)",
      "rgb(128,128,128)",
      "rgb(128,128,128)",
      "rgb(128,128,128)",
      "rgb(128,128,128)",
      "rgb(128,128,128)",
      "rgb(128,128,128)"
    ],
    "lineWeight": [
      4,
      4,
      4,
      4,
      4,
      4,
      4,
      4,
      4
    ],
    "lineDashes": [
      "none",
      "none",
      "none",
      "none",
      "none",
      "none",
      "none",
      "none",
      "none"
    ],
    "layer": [
      2,
      2,
      2,
      2,
      2,
      2,
      2,
      2,
      2
    ],
    "layerPosition": [
      20,
      21,
      22,
      23,
      24,
      25,
      26,
      27,
      28
    ],
    "visible": [
      1,
      1,
      1,
      1,
      1,
      1,
      1,
      1,
      1
    ]
  }
}